12 100
system -0.00037184713 -0.0009399182 -0.0019755496 0.0028610718 0.0036305669 -0.0030484397 -0.0013936844 -0.0026018433 -0.00024051622 0.0024654588 0.002391837 4.8928934e-05 -0.0022977763 0.0027941805 0.004522777 -0.002606438 0.0019814991 -0.0020462577 -0.0025924942 -0.0037542353 -0.004020849 -0.0037770048 -0.0008118235 -0.0008461102 0.0021810236 -0.0035013775 0.003047179 -0.0033355686 0.00044874742 -0.0013311415 -0.0014471688 -0.0035278546 -0.0031719813 -0.0046979166 -0.0018826766 -0.002869913 0.0036466985 -0.0034138472 0.004662448 -0.0014318564 -0.00277513 -0.0046495297 0.0018640485 -0.0046703643 -0.001519623 0.0042177206 -0.0038973563 -0.00048293607 -0.0022529082 7.716712e-05 -0.0016006421 -0.0014990068 -0.003633369 -0.0033900037 0.0035776657 -0.0049347444 -0.0021816946 0.00047621547 0.0015204913 0.0037792732 -0.0024766915 -0.0015134101 0.0008302899 -0.0028516366 -0.0024063224 -0.00067469035 0.0025503745 -0.001860866 -0.0030900452 0.004611408 0.0019481141 -0.0024335023 -0.0041649146 0.0008235008 -0.00022761726 0.003256772 -0.004876926 -0.0006359506 -0.0045309663 -0.0017890941 -0.002419049 0.0041382997 -0.0040064952 -0.0029851103 0.003182326 0.00036981766 0.00050642417 -0.0039072335 -0.000404607 0.0018813239 -0.002539914 -0.003647682 0.0047723013 -0.002711267 0.0005536606 -0.004767684 0.0039691934 0.0042931805 0.0022020605 -0.0016073353
user 0.0010244461 0.0025317005 0.0012602318 -0.004829585 0.004373445 0.00059473875 0.0019566298 0.0023017682 -0.0015870571 -0.003017017 -7.680279e-05 0.00046803523 -0.0036625061 0.001211412 -0.0044112382 0.0044767912 -0.0034902438 0.0014450122 -0.0038758237 -0.00015428568 0.00060019665 0.0008522397 0.004535554 0.0033786183 0.0009734237 0.0017453078 -0.0023654953 0.0007835635 -0.0005474883 -0.0008748571 -0.0013914881 -0.0029604107 1.900813e-05 -0.003974764 -0.0037442595 0.003121104 -0.0006544214 0.0030572356 -0.003336075 0.00052160217 0.0036938684 0.0041092164 0.003040344 -0.0036204632 0.0023196691 0.0042692684 0.0018802424 0.0045886417 -0.0009964851 0.0032187365 0.0031195807 4.7802358e-05 0.00106013 -0.003920563 -0.0003643745 0.0013687398 -0.0022017006 0.004781846 0.0017914304 0.0032377548 0.0014659993 0.0028918753 0.0027061175 -0.004716803 0.0009971164 0.0027803122 0.00063362566 -0.0008473379 -0.00018906839 -0.0034694648 -0.00030378898 0.0043318453 -0.0023528552 -0.004089198 -0.0035966216 0.0025971201 0.001922683 0.0048196274 0.0015179822 -0.003649516 0.0037187312 -0.0018515631 -0.0037079465 -0.0031946143 -0.0047002044 0.0040678764 -0.0029876053 0.0044063884 0.002447694 0.00010166841 0.0043901163 0.0010051869 -0.004876092 0.0048205974 0.0041834 -0.0035659822 -0.0046708146 -0.0044097085 -0.003007772 0.0014684243
trees 0.0014737509 0.00086376065 -0.0033063928 0.0032235612 -0.0015146246 0.0047234753 0.001887952 0.004758454 5.716869e-05 -0.00064044155 -0.0022415735 0.0026225771 -0.0036945813 -0.0031355675 -0.0047017923 -0.0021912884 0.0019262898 0.0032813046 0.002730109 -0.0013847979 0.00097264175 0.0025471787 0.0026744322 -0.0016390145 0.004375753 -0.003997068 -0.00030455255 0.004163668 0.004298476 -0.0007618166 0.0012518702 -0.0036407912 0.002182747 0.0045114933 -0.0047746697 0.00040490978 0.0020046998 0.0022893723 -0.004635075 -0.0036214478 0.0029442462 0.00082137313 0.0038066865 0.002120479 0.0020954472 0.00033832283 -0.0013640035 0.004683601 -0.000720102 -0.0016297594 -0.0034428816 0.0014783507 -0.0032117066 0.0013666786 0.002359375 -0.00060489675 0.004854066 0.0022738553 -0.0040352438 0.0030895441 0.0008155878 0.004817392 0.0041963565 -0.0048412224 0.00085858867 0.0023437545 0.00020868174 -0.0046409806 -0.0022892212 0.0017769841 -0.0047983425 0.004027849 -0.0017926192 -0.0030607202 -0.0046861377 0.0017253545 0.001342565 0.0017207797 0.0019583432 -0.0036262556 -0.001159457 0.001934405 0.004869616 0.002061225 0.00050829817 0.004899718 -0.0013405224 -0.0010813372 0.0024826864 0.004025668 0.0008723196 0.0045657633 0.0018093287 -0.000912874 0.00037844776 0.003819396 0.0035135702 -0.0048249858 -0.004462152 -0.0043856045
graph -0.002115123 -0.002558916 0.0045685945 -0.0020561893 -0.004692202 1.0856261e-05 0.004978323 -0.0038198887 0.0022498048 -0.0011383203 -0.002495999 0.0003314291 0.0030822954 -0.0040141507 -0.0035324043 0.00071015843 -0.0021458466 -0.00338813 0.00034356044 0.004975623 -0.004141392 -0.0036947278 -0.0044995775 -0.0016453669 0.002338791 -0.00215065 -0.0006010554 -0.0020247763 0.00034549306 0.00017457515 -0.0022782378 -0.00073956075 0.0028215519 -0.0030730744 -0.004331882 0.0015633589 -0.0007522412 0.0001455438 0.0030658417 0.0005357322 -0.00037556095 -0.0035167926 0.00011096252 0.00097458076 0.003344937 -0.0015795615 0.0049145618 -0.002773567 0.0006995978 0.0031909638 -0.004855366 -0.004069548 0.0037512244 0.0016125143 0.0047477456 -0.0035343359 -0.0015938468 0.0048491796 0.0033901248 0.00123649 -0.001167385 -0.0020837167 -0.00037477384 0.0029129593 0.002066227 0.004847558 -0.004009576 -0.0012979396 4.4432214e-05 -0.0029225042 0.0039874814 0.001954602 0.0011706463 -0.0035616357 0.0018293115 0.0019236329 -0.0044603935 0.0044395905 0.003537638 -0.0039693057 0.002676026 -0.0030195038 1.49107045e-05 0.0046773474 -0.0011990666 -0.00041209036 -0.0022850742 -0.0007413903 -0.0034908948 0.00018147888 -0.0046768384 -0.0008377671 0.00473779 0.0002370271 -0.0027117266 0.0010221818 0.00060740474 -0.00019680723 0.0010949476 0.0031315605
human 0.0049716486 -0.0030522095 -0.0034746842 0.0018339788 0.0003375768 0.0048922976 0.0034507182 0.003348584 -0.0038536128 0.0021396433 -0.0038845125 -0.001965773 0.00082060107 0.00061265373 0.0006183582 0.0011991938 -0.0018903082 0.0029800097 -0.0018302508 -0.0047187353 -0.0025183442 -0.0005918896 0.0025387101 -0.00069486327 -0.004434682 0.0024674842 0.0025721465 0.00083059515 0.0046638283 0.00452827 -0.002761093 -0.0013592412 0.0031772144 0.0005093758 -0.0018634959 0.0016900046 -0.0038834477 0.004844058 0.0037525713 -0.0015786855 0.002196945 0.0022236265 -0.0047302246 -0.001944687 -0.0031025417 0.0011209847 -0.000806573 -0.0026665109 -0.0013545981 -0.0032565377 0.0026251795 0.00017857554 -0.0042432873 0.0033073262 -0.0022579639 -0.0022405197 0.00046394326 -0.0028829768 0.0012882162 -0.004786047 -0.0013488799 0.004450228 -0.00081358943 0.00028783144 0.0013997977 -0.003608368 -0.0019151547 -0.0007796454 -0.0040911096 0.0039341887 -0.0029613639 -0.00015609282 -0.0031375526 -0.0012564638 0.0028702067 -0.0013190877 -0.0048243944 -0.0011606918 0.002832332 -0.0019855832 -0.0028889065 -0.0003838446 -0.0043590036 -0.003922729 -0.00067294145 -0.0034958893 0.0034054497 -0.0019104534 0.004954035 0.0021941864 0.002624946 -0.0032976677 0.0034183513 -0.0008665599 -9.9057295e-05 -0.0042225695 -0.0010592949 -0.003966768 0.0035661315 -0.0008996094
interface -0.0043153977 -0.004423848 -0.0049654962 0.0035592816 -0.00448541 -0.003989907 0.00088855025 -0.0016769716 0.004566484 -0.0045573795 -0.0023545607 -0.00044392052 0.0011638547 -0.0004315489 0.0006555566 0.0023659756 2.3473549e-05 0.0025685052 0.0014135918 -0.0018084964 -0.003849612 -0.0011595563 0.0018035736 0.004183598 -0.0035993932 -0.004516339 -0.003377232 2.8391481e-05 0.0033086953 0.004660279 -0.00076078385 -0.0034296082 0.003215655 0.0009745804 0.0042153825 -0.0034521045 -0.004554123 0.001403412 -0.003907229 -0.0005890361 -0.0045123766 0.00040909945 -0.0039302907 -0.0005623255 -0.0027990781 -0.002596307 0.0025976428 2.2553204e-05 -0.0004598974 -0.001772935 -0.0018044735 -0.0038955766 0.0032900514 0.0041952254 0.003459422 0.00075774547 0.00043628985 0.0014297216 0.0025745332 0.0024036954 -0.004859849 0.0043758717 0.0033997847 -0.0027998686 -0.0024066933 -0.002845278 0.0045656823 -0.0011170316 0.003081298 -0.0017873929 -0.0048627234 0.0007149873 0.0017147624 0.00356599 0.002764409 0.00053910166 -0.0019238328 0.0025488082 0.002646497 0.004991471 0.0048443847 -0.000791301 -0.0008276197 0.001086472 0.0031829292 0.00033761963 -0.003914172 0.0017017116 -0.0049050436 0.0006459814 -0.004685285 -0.0032164073 -0.003152603 -0.00036793845 0.0045574284 0.0016112301 0.0045875898 -0.0011737009 0.001309016 0.0040240707
computer -0.00437022 -0.003285079 -0.0012197143 -0.0028378055 -0.00033960654 0.0025341113 -0.0031755043 0.0012482621 0.0049104304 -0.00042016682 0.0035950863 0.0038584233 0.0031262818 -0.0011475463 -0.0033231128 -0.002661923 0.0029261443 0.004016684 0.0033838018 -0.002047006 0.0020115315 0.0022009478 -0.0005708295 -0.0007519432 -0.0003601814 0.00047310826 -0.0036877487 -0.0035876336 0.0040274705 -0.004684488 0.0022955139 -0.0049074716 -0.0019369985 0.0045777117 0.004776066 -0.00085185206 -0.000850282 -0.00077487796 0.00045341006 -8.533686e-05 -0.0011659542 -0.0037550167 0.00021389179 -0.0008556088 0.004704238 0.0012368183 0.0041726017 -7.772918e-05 0.0048512523 -0.0008663529 5.7221172e-05 0.0044171116 -0.0032242155 0.004529601 -7.321263e-05 -0.0010722779 -0.0032890807 0.00054394593 0.0048928238 -0.0046728817 1.8211003e-05 -0.0014537562 -0.0028953252 0.004170335 -0.0038517194 -0.0005250473 0.00021424307 0.004737981 0.0043032486 0.0002739018 -0.0037487743 -0.0024302986 -0.0032683648 4.9592887e-05 0.0028171297 0.002740851 0.004717529 0.0047579515 0.0030818372 0.0038209276 0.0031409985 -0.0004409104 0.0047136694 -0.0017702959 -0.0021445388 0.0041730036 0.00033604522 -0.0041083544 0.00029429776 0.0021133183 0.0009952458 0.0015092231 0.0032904714 0.00016092983 0.0009620337 -0.0001293069 0.00010809646 0.0013548265 -0.0004340831 -0.0026077821
survey 0.0017447211 0.0009304251 -0.0026907662 -0.00036462705 0.0045839394 -0.00053259876 0.0028118535 0.00485026 -0.0018503827 0.0030708385 0.003730884 -0.0048606656 -0.0042005945 -0.002399378 -0.0014332146 -0.00021934773 0.0007629166 -0.0023566938 0.00499311 0.0040246896 0.0016635081 0.002092705 -0.0044584274 0.0023994783 -0.0022687814 0.000103296545 -0.0029748187 0.0005185966 0.0021215365 0.0010419976 0.0030924818 -0.0006334571 -0.0004910238 0.0023998455 -0.0012981689 -0.00011741065 -0.0010064372 0.001710804 -0.004602822 0.0048044026 0.00017650204 -0.0037354366 -0.002836225 0.0021080452 -4.648993e-05 -0.00016237504 0.00083231984 0.0025194224 -0.0049765627 0.0017321219 -0.00343937 0.0004052078 -0.0018723559 -0.0039058735 0.0029984855 0.0035046644 -0.0047524534 -0.0015874542 -0.002155156 -0.003366314 0.003722818 -0.00455402 -0.0001588259 -0.0043287273 -0.0032938048 -0.0006329877 0.0039480473 -0.0010652706 0.003973325 -0.0032636127 -0.0029401013 0.0049617984 0.0035967152 0.00059375254 -0.002268169 -0.00026503074 -0.0017893747 0.0019278559 0.0027319584 -0.0014414343 -0.0028185048 -0.0005829836 -0.0036283976 0.002325749 0.001586374 -0.0028937415 0.0032981327 0.00436682 -0.003460705 0.0036073746 0.0014776886 0.001152144 -3.7326477e-05 0.004889433 -6.483189e-05 -0.0024458372 -0.002167891 0.0022039288 -0.0030781906 0.001201771
response 0.0026988045 -0.0018836525 -0.0036634856 0.0028872213 0.0034604925 -0.0037515748 -0.0037195424 -0.0013183006 -0.004103969 0.00041987406 0.0032811288 0.0034745345 0.00092487136 -0.004729527 -0.0018959132 0.000986779 -0.0011672699 0.0029897282 9.5646225e-05 -0.004503611 -0.0048353537 -0.0011704977 -0.004192861 0.0026930328 -0.002975 0.0019528162 0.00046933733 6.645758e-05 0.003955917 -0.004562878 -0.0007203572 -0.0016958395 0.0025685192 0.0040612314 0.0040621166 0.0042704423 0.0030988918 0.00031177877 -0.0026056624 0.0015252382 0.003904867 0.004971699 -0.0039819796 0.0037220367 -0.0022522735 -0.0030788996 -0.0041890293 0.0023919258 0.0014432621 -0.003131354 7.918389e-05 0.004466326 0.002966956 -3.9271352e-05 -0.0005491747 -0.0018718592 0.0046235574 0.0048344624 0.0005768555 0.0015349301 -0.0026055006 -0.0011181418 0.0042463695 -0.00088820537 -0.0047986233 0.0048858803 0.0035561363 -0.004941771 0.0046822643 -0.0003138832 -8.848246e-05 -0.0023425324 -0.0017806373 -0.0036792764 0.0012740261 0.00047417314 0.003505491 0.0039888998 0.0008771683 -0.0042941035 0.0030279218 0.004962254 0.0010742593 -0.0025799463 -0.0042436933 -0.0034471666 -0.0020760451 -0.0020822692 0.0011499904 0.0035356486 -0.0009146816 0.0020538257 -0.0010058883 0.002020382 0.0035477425 -0.00024054412 -0.003394343 -0.0011842531 -0.0037899376 0.004556483
time 0.0012959132 0.0004023894 -0.0027549986 -0.0033987057 -0.0008663389 0.0012624648 -0.0021395718 0.001903171 0.000267194 0.0025994347 -0.0034396772 -0.0018115618 7.297305e-05 0.0037507776 -0.003723207 0.0032436778 0.0030783701 -0.001987928 -0.0011123408 0.002259527 -0.00265176 -0.00033194775 -0.0006884825 -0.0046384055 0.0012967056 -0.00039786068 -0.0018036081 -0.0049427967 0.0035964919 0.0017762046 -0.0033969178 -0.0029269329 -0.0038326075 0.0011085876 -0.0028927582 -0.0022949972 -0.0049809036 0.00050144363 0.00080720906 -0.0023655603 0.0042114025 -0.0020375736 0.00127513 -0.0035029969 -0.00095832464 0.0015510164 0.001375428 0.0034838761 -0.00079730037 -0.0020609056 -0.0044353255 -0.0036305916 0.004228752 -0.0021925394 0.0027225253 -0.0048913467 0.0010538221 0.0011208388 -0.0038050294 0.0005639122 -0.0049119215 -0.0005451695 -0.0025737246 -0.004583098 -0.0014994824 -0.004606066 0.0037301346 -0.0038284492 -0.0014603367 0.0017360593 0.0041182935 -0.0010210534 0.0039209966 -0.0006397595 0.0015839603 0.001531685 0.0011950721 0.0028805735 -0.0025056696 -0.0036505403 0.0034016485 -0.0031032928 0.0015108783 -0.0029387819 0.004368685 0.0038076565 -0.002994541 -0.0012384896 0.0019660518 0.0039755777 -0.002814314 -0.0017958892 -0.00029804607 0.00029179882 -0.0008372613 0.004931963 0.0024088733 -0.0040758057 -0.0011378743 0.002894246
eps -0.0047217724 0.0018240992 0.004603951 0.00155652 0.00048576263 0.0030476097 -0.0044551664 -0.0037263376 -0.003719919 -0.002092437 -0.0027341116 0.0043583596 -0.0015417351 0.0036962447 -0.00047042515 0.0012956068 -0.0043061436 -0.0009362172 0.003040997 -0.0032919007 -0.002167606 -0.0018513137 0.0034692877 0.004387867 0.0012616579 0.00465698 0.0024832468 -0.0049958876 0.0010222992 0.0018243049 -0.0021252972 0.002508915 -0.0013539604 -0.00022152039 0.00020621168 0.0033611434 0.0037130795 -0.0028509877 -0.0017796792 -0.0034992208 0.0049814302 -0.0043991227 -0.0044423486 -0.003201138 -0.0028513575 -0.0043888926 0.0020320925 0.0046795346 0.00052462664 0.00043676345 0.0016845489 0.0007799498 -0.002285808 0.0040731737 0.00028226667 0.0006524292 0.0012817122 -0.003516638 -0.003917925 -0.00069165055 0.0016750401 0.00044811898 -0.0035897556 0.00021299931 0.0045646913 0.00054648553 0.0038538266 -0.0010850341 -0.004000836 0.004139808 -0.0006878485 0.0022565806 -2.5355883e-05 0.003255737 0.001086695 0.0004578628 -0.0027815963 -6.767465e-05 -0.004092831 0.000846382 0.0012141392 -0.0007202216 0.0025823794 0.0043996577 -0.0041487217 -0.0014232427 0.0020440514 -0.0008824802 -0.0039361785 -0.000766393 0.00019568755 -0.0012469104 -0.0029658894 0.004908381 0.0014643526 -5.4872373e-05 -0.004230924 0.0018537637 0.0012073888 -0.004807493
minors -0.00019866947 -0.00024354996 -0.0023298468 -0.00041535925 -9.036059e-05 -0.0029293767 0.0012691262 -0.0006131047 0.003680208 0.0022048706 0.0049965326 -0.0022046457 0.0019211739 -0.0015301993 -0.0016038832 -0.0026504009 -0.0034270142 -4.648217e-06 -0.0010466983 0.003046199 -0.0006203847 -0.0003775143 0.00011520387 0.0040524574 0.0036276644 -0.0028570106 -0.00049786124 -0.0032758128 0.0026408404 0.0043496643 -0.004039461 -0.002883125 0.00063863577 0.004007146 0.004522141 0.0011358472 0.001139717 0.00070865825 -0.0016583351 -0.0018568778 -0.0032181318 -0.0033643835 -0.004169645 0.0016481162 -0.0024560918 0.0049468228 0.0045405366 0.001579196 0.0017165194 0.0013533772 -0.002954952 0.0010005586 -0.0032938179 0.0038579074 -0.0024855617 0.0024884716 -0.0038176938 -0.0047548856 0.0048163636 -0.004942923 0.0031568527 0.0034768442 0.00471927 -0.0027349272 0.0027389345 0.00063664763 0.0015941389 0.0009355096 0.0025536197 -0.0031592327 0.0006992442 -0.0042582196 -0.0038998716 0.001618299 -0.00012016835 0.00018196765 0.0032765388 0.0010813387 -0.0020444023 0.0019764844 0.0021555608 -0.0037247804 -0.00074168644 0.0016321162 0.004725685 -0.0039689713 0.00063874887 -0.0011573292 -0.004723078 -0.0007307561 -0.0026885155 0.0041981307 0.00040367257 -0.004769183 0.0048498977 -0.0014947153 0.0013631122 0.00070289406 0.0018686497 -0.0007427815
